<?xml version="1.0" encoding="UTF-8"?>
<BIF VERSION="0.3"  xmlns="http://www.cs.ubc.ca/labs/lci/fopi/ve/XMLBIFv0_3"
	xmlns:xsi="http://www.w3.org/2001/XMLSchema-instance"
	xsi:schemaLocation="http://www.cs.ubc.ca/labs/lci/fopi/ve/XMLBIFv0_3 http://www.cs.ubc.ca/labs/lci/fopi/ve/XMLBIFv0_3/XMLBIFv0_3.xsd">
<NETWORK>
<NAME>Untitled</NAME>
<PROPERTY>detailed = </PROPERTY>
<PROPERTY>short = </PROPERTY>

<VARIABLE TYPE="nature">
	<NAME>Huellas</NAME>
	<OUTCOME>T</OUTCOME>
	<OUTCOME>F</OUTCOME>
	<PROPERTY>position = (7492.1337890625, 5194.24951171875)</PROPERTY>
</VARIABLE>

<VARIABLE TYPE="nature">
	<NAME>Motivo</NAME>
	<OUTCOME>T</OUTCOME>
	<OUTCOME>F</OUTCOME>
	<PROPERTY>position = (7491.453125, 5073.94921875)</PROPERTY>
</VARIABLE>

<VARIABLE TYPE="nature">
	<NAME>No-Coartada</NAME>
	<OUTCOME>T</OUTCOME>
	<OUTCOME>F</OUTCOME>
	<PROPERTY>position = (7497.91650390625, 5261.560546875)</PROPERTY>
</VARIABLE>

<VARIABLE TYPE="nature">
	<NAME>Culpable</NAME>
	<OUTCOME>T</OUTCOME>
	<OUTCOME>F</OUTCOME>
	<PROPERTY>position = (7662.76416015625, 5147.3046875)</PROPERTY>
</VARIABLE>

<VARIABLE TYPE="nature">
	<NAME>Pelea</NAME>
	<OUTCOME>T</OUTCOME>
	<OUTCOME>F</OUTCOME>
	<PROPERTY>position = (7386.1767578125, 5046.75048828125)</PROPERTY>
</VARIABLE>

<VARIABLE TYPE="nature">
	<NAME>No-ascenso</NAME>
	<OUTCOME>T</OUTCOME>
	<OUTCOME>F</OUTCOME>
	<PROPERTY>position = (7386.1767578125, 5089.73779296875)</PROPERTY>
</VARIABLE>

<VARIABLE TYPE="nature">
	<NAME>Propiedad del arma</NAME>
	<OUTCOME>T</OUTCOME>
	<OUTCOME>F</OUTCOME>
	<PROPERTY>position = (7491.06640625, 5135.0185546875)</PROPERTY>
</VARIABLE>

<VARIABLE TYPE="nature">
	<NAME>Cámara detecta sospechoso en escena del crimen</NAME>
	<OUTCOME>T</OUTCOME>
	<OUTCOME>F</OUTCOME>
	<PROPERTY>position = (7496.79833984375, 5399.24951171875)</PROPERTY>
</VARIABLE>

<VARIABLE TYPE="nature">
	<NAME>Fiabilidad cámara</NAME>
	<OUTCOME>T</OUTCOME>
	<OUTCOME>F</OUTCOME>
	<PROPERTY>position = (7497.37158203125, 5344.22509765625)</PROPERTY>
</VARIABLE>

<VARIABLE TYPE="nature">
	<NAME>Amigo confirma coartada</NAME>
	<OUTCOME>T</OUTCOME>
	<OUTCOME>F</OUTCOME>
	<PROPERTY>position = (7291.03076171875, 5261.11572265625)</PROPERTY>
</VARIABLE>

<VARIABLE TYPE="nature">
	<NAME>Fiabilidad amigo</NAME>
	<OUTCOME>T</OUTCOME>
	<OUTCOME>F</OUTCOME>
	<PROPERTY>position = (7416.55517578125, 5261.11572265625)</PROPERTY>
</VARIABLE>

<VARIABLE TYPE="nature">
	<NAME>Testigo ve acusado en escena del crimen</NAME>
	<OUTCOME>T</OUTCOME>
	<OUTCOME>F</OUTCOME>
	<PROPERTY>position = (7646.96875, 5336.201171875)</PROPERTY>
</VARIABLE>

<VARIABLE TYPE="nature">
	<NAME>Fiabilidad del testigo</NAME>
	<OUTCOME>T</OUTCOME>
	<OUTCOME>F</OUTCOME>
	<PROPERTY>position = (7646.3955078125, 5261.11572265625)</PROPERTY>
</VARIABLE>

<DEFINITION>
	<FOR>Huellas</FOR>
	<TABLE>0.9 0.1</TABLE>
</DEFINITION>

<DEFINITION>
	<FOR>Motivo</FOR>
	<GIVEN>Pelea</GIVEN>
	<GIVEN>No-ascenso</GIVEN>
	<TABLE>0.99 0.01 0.75 0.25 0.5 0.5 0.2 0.8</TABLE>
</DEFINITION>

<DEFINITION>
	<FOR>No-Coartada</FOR>
	<GIVEN>Fiabilidad cámara</GIVEN>
	<GIVEN>Fiabilidad amigo</GIVEN>
	<GIVEN>Fiabilidad del testigo</GIVEN>
	<TABLE>0.9 0.1 0.6 0.4 0.99 0.01 0.7 0.3 0.5 0.5 0.1 0.9 0.6 0.4 0.001 0.999</TABLE>
</DEFINITION>

<DEFINITION>
	<FOR>Culpable</FOR>
	<GIVEN>Huellas</GIVEN>
	<GIVEN>Motivo</GIVEN>
	<GIVEN>No-Coartada</GIVEN>
	<GIVEN>Propiedad del arma</GIVEN>
	<TABLE>0.95 0.05 0.9 0.1 0.85 0.15 0.7 0.3 0.6 0.4 0.5 0.5 0.45 0.55 0.3 0.7 0.85 0.15 0.8 0.2 0.85 0.15 0.8 0.2 0.55 0.45 0.3 0.7 0.1 0.9 0.001 0.999</TABLE>
</DEFINITION>

<DEFINITION>
	<FOR>Pelea</FOR>
	<TABLE>0.3 0.7</TABLE>
</DEFINITION>

<DEFINITION>
	<FOR>No-ascenso</FOR>
	<TABLE>0.8 0.2</TABLE>
</DEFINITION>

<DEFINITION>
	<FOR>Propiedad del arma</FOR>
	<TABLE>0.4 0.6</TABLE>
</DEFINITION>

<DEFINITION>
	<FOR>Cámara detecta sospechoso en escena del crimen</FOR>
	<TABLE>1.0 0.0</TABLE>
</DEFINITION>

<DEFINITION>
	<FOR>Fiabilidad cámara</FOR>
	<GIVEN>Cámara detecta sospechoso en escena del crimen</GIVEN>
	<TABLE>0.85 0.15 0.0 1.0</TABLE>
</DEFINITION>

<DEFINITION>
	<FOR>Amigo confirma coartada</FOR>
	<TABLE>1.0 0.0</TABLE>
</DEFINITION>

<DEFINITION>
	<FOR>Fiabilidad amigo</FOR>
	<GIVEN>Amigo confirma coartada</GIVEN>
	<TABLE>0.6 0.4 0.0 1.0</TABLE>
</DEFINITION>

<DEFINITION>
	<FOR>Testigo ve acusado en escena del crimen</FOR>
	<TABLE>1.0 0.0</TABLE>
</DEFINITION>

<DEFINITION>
	<FOR>Fiabilidad del testigo</FOR>
	<GIVEN>Testigo ve acusado en escena del crimen</GIVEN>
	<TABLE>0.5 0.5 0.5 0.5</TABLE>
</DEFINITION>
</NETWORK>
</BIF>
